<?xml version="1.0" encoding="UTF-8"?>
<PMML version="4.4" xmlns="http://www.dmg.org/PMML-4_4">
    <Header>
        <Application name="TestModel" version="1.0"/>
    </Header>
    <DataDictionary numberOfFields="2">
        <DataField name="input" optype="continuous" dataType="double"/>
        <DataField name="output" optype="continuous" dataType="double"/>
    </DataDictionary>
    <RegressionModel functionName="regression">
        <MiningSchema>
            <MiningField name="input"/>
            <MiningField name="output" usageType="target"/>
        </MiningSchema>
        <RegressionTable intercept="0.5">
            <NumericPredictor name="input" coefficient="2.0"/>
        </RegressionTable>
    </RegressionModel>
</PMML>
